digraph Tree {
node [shape=box, style="filled, rounded", color="black", fontname=helvetica] ;
edge [fontname=helvetica] ;
0 [label="koi_dicco_msky <= 1.11\ngini = 0.43\nsamples = 4545\nvalue = [4858, 2280]\nclass = FALSE POSITIVE", fillcolor="#e5813987"] ;
1 [label="koi_prad <= 13.5\ngini = 0.5\nsamples = 2650\nvalue = [2015, 2155]\nclass = EXOPLANET", fillcolor="#399de511"] ;
0 -> 1 [labeldistance=2.5, labelangle=45, headlabel="True"] ;
2 [label="koi_fpflag_nt <= 0.5\ngini = 0.35\nsamples = 1754\nvalue = [609, 2128]\nclass = EXOPLANET", fillcolor="#399de5b6"] ;
1 -> 2 ;
3 [label="koi_fpflag_ss <= 0.5\ngini = 0.2\nsamples = 1532\nvalue = [268, 2128]\nclass = EXOPLANET", fillcolor="#399de5df"] ;
2 -> 3 ;
4 [label="koi_fpflag_ec <= 0.5\ngini = 0.11\nsamples = 1442\nvalue = [136, 2123]\nclass = EXOPLANET", fillcolor="#399de5ef"] ;
3 -> 4 ;
5 [label="koi_fpflag_co <= 0.5\ngini = 0.04\nsamples = 1388\nvalue = [46, 2123]\nclass = EXOPLANET", fillcolor="#399de5f9"] ;
4 -> 5 ;
6 [label="ENC_LS+MCMC <= 0.5\ngini = 0.02\nsamples = 1373\nvalue = [23, 2123]\nclass = EXOPLANET", fillcolor="#399de5fc"] ;
5 -> 6 ;
7 [label="gini = 0.3\nsamples = 19\nvalue = [22, 5]\nclass = FALSE POSITIVE", fillcolor="#e58139c5"] ;
6 -> 7 ;
8 [label="koi_fwm_prao <= 0.0\ngini = 0.0\nsamples = 1354\nvalue = [1, 2118]\nclass = EXOPLANET", fillcolor="#399de5ff"] ;
6 -> 8 ;
9 [label="gini = 0.0\nsamples = 1337\nvalue = [0, 2093]\nclass = EXOPLANET", fillcolor="#399de5ff"] ;
8 -> 9 ;
10 [label="gini = 0.07\nsamples = 17\nvalue = [1, 25]\nclass = EXOPLANET", fillcolor="#399de5f5"] ;
8 -> 10 ;
11 [label="gini = 0.0\nsamples = 15\nvalue = [23, 0]\nclass = FALSE POSITIVE", fillcolor="#e58139ff"] ;
5 -> 11 ;
12 [label="gini = 0.0\nsamples = 54\nvalue = [90, 0]\nclass = FALSE POSITIVE", fillcolor="#e58139ff"] ;
4 -> 12 ;
13 [label="koi_model_snr <= 356.2\ngini = 0.07\nsamples = 90\nvalue = [132, 5]\nclass = FALSE POSITIVE", fillcolor="#e58139f5"] ;
3 -> 13 ;
14 [label="gini = 0.0\nsamples = 80\nvalue = [124, 0]\nclass = FALSE POSITIVE", fillcolor="#e58139ff"] ;
13 -> 14 ;
15 [label="gini = 0.47\nsamples = 10\nvalue = [8, 5]\nclass = FALSE POSITIVE", fillcolor="#e5813960"] ;
13 -> 15 ;
16 [label="gini = 0.0\nsamples = 222\nvalue = [341, 0]\nclass = FALSE POSITIVE", fillcolor="#e58139ff"] ;
2 -> 16 ;
17 [label="koi_prad <= 18.06\ngini = 0.04\nsamples = 896\nvalue = [1406, 27]\nclass = FALSE POSITIVE", fillcolor="#e58139fa"] ;
1 -> 17 ;
18 [label="koi_dicco_msky <= 0.02\ngini = 0.26\nsamples = 69\nvalue = [92, 17]\nclass = FALSE POSITIVE", fillcolor="#e58139d0"] ;
17 -> 18 ;
19 [label="gini = 0.47\nsamples = 13\nvalue = [7, 12]\nclass = EXOPLANET", fillcolor="#399de56a"] ;
18 -> 19 ;
20 [label="koi_smet <= 0.05\ngini = 0.1\nsamples = 56\nvalue = [85, 5]\nclass = FALSE POSITIVE", fillcolor="#e58139f0"] ;
18 -> 20 ;
21 [label="gini = 0.0\nsamples = 45\nvalue = [67, 0]\nclass = FALSE POSITIVE", fillcolor="#e58139ff"] ;
20 -> 21 ;
22 [label="gini = 0.34\nsamples = 11\nvalue = [18, 5]\nclass = FALSE POSITIVE", fillcolor="#e58139b8"] ;
20 -> 22 ;
23 [label="koi_dikco_msky <= 0.02\ngini = 0.01\nsamples = 827\nvalue = [1314, 10]\nclass = FALSE POSITIVE", fillcolor="#e58139fd"] ;
17 -> 23 ;
24 [label="gini = 0.32\nsamples = 15\nvalue = [16, 4]\nclass = FALSE POSITIVE", fillcolor="#e58139bf"] ;
23 -> 24 ;
25 [label="koi_tce_plnt_num <= 1.92\ngini = 0.01\nsamples = 812\nvalue = [1298, 6]\nclass = FALSE POSITIVE", fillcolor="#e58139fe"] ;
23 -> 25 ;
26 [label="koi_ldm_coeff2 <= 0.08\ngini = 0.0\nsamples = 787\nvalue = [1266, 1]\nclass = FALSE POSITIVE", fillcolor="#e58139ff"] ;
25 -> 26 ;
27 [label="gini = 0.14\nsamples = 10\nvalue = [12, 1]\nclass = FALSE POSITIVE", fillcolor="#e58139ea"] ;
26 -> 27 ;
28 [label="gini = 0.0\nsamples = 777\nvalue = [1254, 0]\nclass = FALSE POSITIVE", fillcolor="#e58139ff"] ;
26 -> 28 ;
29 [label="koi_time0 <= 2454971.25\ngini = 0.23\nsamples = 25\nvalue = [32, 5]\nclass = FALSE POSITIVE", fillcolor="#e58139d7"] ;
25 -> 29 ;
30 [label="gini = 0.0\nsamples = 15\nvalue = [22, 0]\nclass = FALSE POSITIVE", fillcolor="#e58139ff"] ;
29 -> 30 ;
31 [label="gini = 0.44\nsamples = 10\nvalue = [10, 5]\nclass = FALSE POSITIVE", fillcolor="#e581397f"] ;
29 -> 31 ;
32 [label="koi_dikco_msky <= 1.79\ngini = 0.08\nsamples = 1895\nvalue = [2843, 125]\nclass = FALSE POSITIVE", fillcolor="#e58139f4"] ;
0 -> 32 [labeldistance=2.5, labelangle=-45, headlabel="False"] ;
33 [label="koi_tce_plnt_num <= 1.89\ngini = 0.25\nsamples = 429\nvalue = [579, 102]\nclass = FALSE POSITIVE", fillcolor="#e58139d2"] ;
32 -> 33 ;
34 [label="koi_prad <= 4.09\ngini = 0.18\nsamples = 377\nvalue = [538, 59]\nclass = FALSE POSITIVE", fillcolor="#e58139e3"] ;
33 -> 34 ;
35 [label="koi_fpflag_nt <= 0.5\ngini = 0.31\nsamples = 190\nvalue = [249, 58]\nclass = FALSE POSITIVE", fillcolor="#e58139c4"] ;
34 -> 35 ;
36 [label="koi_dor <= 7.78\ngini = 0.46\nsamples = 96\nvalue = [103, 58]\nclass = FALSE POSITIVE", fillcolor="#e581396f"] ;
35 -> 36 ;
37 [label="koi_dikco_msky <= 1.05\ngini = 0.09\nsamples = 52\nvalue = [80, 4]\nclass = FALSE POSITIVE", fillcolor="#e58139f2"] ;
36 -> 37 ;
38 [label="gini = 0.39\nsamples = 10\nvalue = [11, 4]\nclass = FALSE POSITIVE", fillcolor="#e58139a2"] ;
37 -> 38 ;
39 [label="gini = 0.0\nsamples = 42\nvalue = [69, 0]\nclass = FALSE POSITIVE", fillcolor="#e58139ff"] ;
37 -> 39 ;
40 [label="koi_quarters <= 1.084783886835206e+31\ngini = 0.42\nsamples = 44\nvalue = [23, 54]\nclass = EXOPLANET", fillcolor="#399de592"] ;
36 -> 40 ;
41 [label="gini = 0.46\nsamples = 15\nvalue = [16, 9]\nclass = FALSE POSITIVE", fillcolor="#e5813970"] ;
40 -> 41 ;
42 [label="koi_fwm_stat_sig <= 0.01\ngini = 0.23\nsamples = 29\nvalue = [7, 45]\nclass = EXOPLANET", fillcolor="#399de5d7"] ;
40 -> 42 ;
43 [label="gini = 0.5\nsamples = 10\nvalue = [6, 7]\nclass = EXOPLANET", fillcolor="#399de524"] ;
42 -> 43 ;
44 [label="gini = 0.05\nsamples = 19\nvalue = [1, 38]\nclass = EXOPLANET", fillcolor="#399de5f8"] ;
42 -> 44 ;
45 [label="gini = 0.0\nsamples = 94\nvalue = [146, 0]\nclass = FALSE POSITIVE", fillcolor="#e58139ff"] ;
35 -> 45 ;
46 [label="koi_ror <= 0.03\ngini = 0.01\nsamples = 187\nvalue = [289, 1]\nclass = FALSE POSITIVE", fillcolor="#e58139fe"] ;
34 -> 46 ;
47 [label="gini = 0.13\nsamples = 11\nvalue = [13, 1]\nclass = FALSE POSITIVE", fillcolor="#e58139eb"] ;
46 -> 47 ;
48 [label="gini = 0.0\nsamples = 176\nvalue = [276, 0]\nclass = FALSE POSITIVE", fillcolor="#e58139ff"] ;
46 -> 48 ;
49 [label="koi_fpflag_nt <= 0.5\ngini = 0.5\nsamples = 52\nvalue = [41, 43]\nclass = EXOPLANET", fillcolor="#399de50c"] ;
33 -> 49 ;
50 [label="koi_max_mult_ev <= 12.0\ngini = 0.26\nsamples = 30\nvalue = [8, 43]\nclass = EXOPLANET", fillcolor="#399de5d0"] ;
49 -> 50 ;
51 [label="gini = 0.49\nsamples = 10\nvalue = [8, 11]\nclass = EXOPLANET", fillcolor="#399de546"] ;
50 -> 51 ;
52 [label="gini = 0.0\nsamples = 20\nvalue = [0, 32]\nclass = EXOPLANET", fillcolor="#399de5ff"] ;
50 -> 52 ;
53 [label="gini = 0.0\nsamples = 22\nvalue = [33, 0]\nclass = FALSE POSITIVE", fillcolor="#e58139ff"] ;
49 -> 53 ;
54 [label="koi_jmag <= 7.79\ngini = 0.02\nsamples = 1466\nvalue = [2264, 23]\nclass = FALSE POSITIVE", fillcolor="#e58139fc"] ;
32 -> 54 ;
55 [label="gini = 0.5\nsamples = 13\nvalue = [9, 8]\nclass = FALSE POSITIVE", fillcolor="#e581391c"] ;
54 -> 55 ;
56 [label="koi_rmag <= 10.52\ngini = 0.01\nsamples = 1453\nvalue = [2255, 15]\nclass = FALSE POSITIVE", fillcolor="#e58139fd"] ;
54 -> 56 ;
57 [label="koi_zmag <= 13.43\ngini = 0.17\nsamples = 34\nvalue = [50, 5]\nclass = FALSE POSITIVE", fillcolor="#e58139e6"] ;
56 -> 57 ;
58 [label="gini = 0.0\nsamples = 24\nvalue = [42, 0]\nclass = FALSE POSITIVE", fillcolor="#e58139ff"] ;
57 -> 58 ;
59 [label="gini = 0.47\nsamples = 10\nvalue = [8, 5]\nclass = FALSE POSITIVE", fillcolor="#e5813960"] ;
57 -> 59 ;
60 [label="koi_incl <= 89.96\ngini = 0.01\nsamples = 1419\nvalue = [2205, 10]\nclass = FALSE POSITIVE", fillcolor="#e58139fe"] ;
56 -> 60 ;
61 [label="koi_dikco_msky <= 2.2\ngini = 0.01\nsamples = 1371\nvalue = [2135, 6]\nclass = FALSE POSITIVE", fillcolor="#e58139fe"] ;
60 -> 61 ;
62 [label="koi_max_sngle_ev <= 3.61\ngini = 0.04\nsamples = 182\nvalue = [271, 5]\nclass = FALSE POSITIVE", fillcolor="#e58139fa"] ;
61 -> 62 ;
63 [label="koi_fwm_srao <= 0.45\ngini = 0.27\nsamples = 22\nvalue = [26, 5]\nclass = FALSE POSITIVE", fillcolor="#e58139ce"] ;
62 -> 63 ;
64 [label="gini = 0.46\nsamples = 10\nvalue = [9, 5]\nclass = FALSE POSITIVE", fillcolor="#e5813971"] ;
63 -> 64 ;
65 [label="gini = 0.0\nsamples = 12\nvalue = [17, 0]\nclass = FALSE POSITIVE", fillcolor="#e58139ff"] ;
63 -> 65 ;
66 [label="gini = 0.0\nsamples = 160\nvalue = [245, 0]\nclass = FALSE POSITIVE", fillcolor="#e58139ff"] ;
62 -> 66 ;
67 [label="koi_dikco_mra <= 6.87\ngini = 0.0\nsamples = 1189\nvalue = [1864, 1]\nclass = FALSE POSITIVE", fillcolor="#e58139ff"] ;
61 -> 67 ;
68 [label="gini = 0.0\nsamples = 1120\nvalue = [1760, 0]\nclass = FALSE POSITIVE", fillcolor="#e58139ff"] ;
67 -> 68 ;
69 [label="koi_dicco_mra <= 7.19\ngini = 0.02\nsamples = 69\nvalue = [104, 1]\nclass = FALSE POSITIVE", fillcolor="#e58139fd"] ;
67 -> 69 ;
70 [label="gini = 0.17\nsamples = 10\nvalue = [10, 1]\nclass = FALSE POSITIVE", fillcolor="#e58139e6"] ;
69 -> 70 ;
71 [label="gini = 0.0\nsamples = 59\nvalue = [94, 0]\nclass = FALSE POSITIVE", fillcolor="#e58139ff"] ;
69 -> 71 ;
72 [label="koi_steff <= 6060.0\ngini = 0.1\nsamples = 48\nvalue = [70, 4]\nclass = FALSE POSITIVE", fillcolor="#e58139f0"] ;
60 -> 72 ;
73 [label="gini = 0.0\nsamples = 37\nvalue = [56, 0]\nclass = FALSE POSITIVE", fillcolor="#e58139ff"] ;
72 -> 73 ;
74 [label="gini = 0.35\nsamples = 11\nvalue = [14, 4]\nclass = FALSE POSITIVE", fillcolor="#e58139b6"] ;
72 -> 74 ;
}