digraph Tree {
node [shape=box, style="filled, rounded", color="black", fontname=helvetica] ;
edge [fontname=helvetica] ;
0 [label="koi_count <= 1.5\ngini = 0.43\nsamples = 4545\nvalue = [4858, 2280]\nclass = FALSE POSITIVE", fillcolor="#e5813987"] ;
1 [label="koi_fwm_stat_sig <= 0.0\ngini = 0.3\nsamples = 3515\nvalue = [4528, 1021]\nclass = FALSE POSITIVE", fillcolor="#e58139c6"] ;
0 -> 1 [labeldistance=2.5, labelangle=45, headlabel="True"] ;
2 [label="koi_smet <= 0.13\ngini = 0.11\nsamples = 2297\nvalue = [3414, 222]\nclass = FALSE POSITIVE", fillcolor="#e58139ee"] ;
1 -> 2 ;
3 [label="koi_prad <= 16.7\ngini = 0.08\nsamples = 2105\nvalue = [3192, 138]\nclass = FALSE POSITIVE", fillcolor="#e58139f4"] ;
2 -> 3 ;
4 [label="koi_dikco_msky <= 0.88\ngini = 0.15\nsamples = 1051\nvalue = [1516, 138]\nclass = FALSE POSITIVE", fillcolor="#e58139e8"] ;
3 -> 4 ;
5 [label="koi_max_mult_ev <= 14.13\ngini = 0.38\nsamples = 340\nvalue = [388, 131]\nclass = FALSE POSITIVE", fillcolor="#e58139a9"] ;
4 -> 5 ;
6 [label="koi_hmag <= 14.16\ngini = 0.02\nsamples = 182\nvalue = [269, 3]\nclass = FALSE POSITIVE", fillcolor="#e58139fc"] ;
5 -> 6 ;
7 [label="koi_sma <= 1.04\ngini = 0.01\nsamples = 172\nvalue = [258, 1]\nclass = FALSE POSITIVE", fillcolor="#e58139fe"] ;
6 -> 7 ;
8 [label="gini = 0.0\nsamples = 162\nvalue = [249, 0]\nclass = FALSE POSITIVE", fillcolor="#e58139ff"] ;
7 -> 8 ;
9 [label="gini = 0.18\nsamples = 10\nvalue = [9, 1]\nclass = FALSE POSITIVE", fillcolor="#e58139e3"] ;
7 -> 9 ;
10 [label="gini = 0.26\nsamples = 10\nvalue = [11, 2]\nclass = FALSE POSITIVE", fillcolor="#e58139d1"] ;
6 -> 10 ;
11 [label="koi_fpflag_ss <= 0.5\ngini = 0.5\nsamples = 158\nvalue = [119, 128]\nclass = EXOPLANET", fillcolor="#399de512"] ;
5 -> 11 ;
12 [label="koi_fpflag_co <= 0.5\ngini = 0.39\nsamples = 103\nvalue = [44, 124]\nclass = EXOPLANET", fillcolor="#399de5a5"] ;
11 -> 12 ;
13 [label="gini = 0.24\nsamples = 86\nvalue = [20, 124]\nclass = EXOPLANET", fillcolor="#399de5d6"] ;
12 -> 13 ;
14 [label="gini = 0.0\nsamples = 17\nvalue = [24, 0]\nclass = FALSE POSITIVE", fillcolor="#e58139ff"] ;
12 -> 14 ;
15 [label="koi_max_mult_ev <= 1202.56\ngini = 0.1\nsamples = 55\nvalue = [75, 4]\nclass = FALSE POSITIVE", fillcolor="#e58139f1"] ;
11 -> 15 ;
16 [label="gini = 0.0\nsamples = 45\nvalue = [61, 0]\nclass = FALSE POSITIVE", fillcolor="#e58139ff"] ;
15 -> 16 ;
17 [label="gini = 0.35\nsamples = 10\nvalue = [14, 4]\nclass = FALSE POSITIVE", fillcolor="#e58139b6"] ;
15 -> 17 ;
18 [label="koi_kepmag <= 10.22\ngini = 0.01\nsamples = 711\nvalue = [1128, 7]\nclass = FALSE POSITIVE", fillcolor="#e58139fd"] ;
4 -> 18 ;
19 [label="gini = 0.34\nsamples = 10\nvalue = [11, 3]\nclass = FALSE POSITIVE", fillcolor="#e58139b9"] ;
18 -> 19 ;
20 [label="ra <= 282.1\ngini = 0.01\nsamples = 701\nvalue = [1117, 4]\nclass = FALSE POSITIVE", fillcolor="#e58139fe"] ;
18 -> 20 ;
21 [label="gini = 0.18\nsamples = 10\nvalue = [18, 2]\nclass = FALSE POSITIVE", fillcolor="#e58139e3"] ;
20 -> 21 ;
22 [label="koi_dikco_msky <= 0.98\ngini = 0.0\nsamples = 691\nvalue = [1099, 2]\nclass = FALSE POSITIVE", fillcolor="#e58139ff"] ;
20 -> 22 ;
23 [label="gini = 0.1\nsamples = 12\nvalue = [17, 1]\nclass = FALSE POSITIVE", fillcolor="#e58139f0"] ;
22 -> 23 ;
24 [label="gini = 0.0\nsamples = 679\nvalue = [1082, 1]\nclass = FALSE POSITIVE", fillcolor="#e58139ff"] ;
22 -> 24 ;
25 [label="gini = 0.0\nsamples = 1054\nvalue = [1676, 0]\nclass = FALSE POSITIVE", fillcolor="#e58139ff"] ;
3 -> 25 ;
26 [label="koi_prad <= 17.56\ngini = 0.4\nsamples = 192\nvalue = [222, 84]\nclass = FALSE POSITIVE", fillcolor="#e581399f"] ;
2 -> 26 ;
27 [label="koi_fpflag_co <= 0.5\ngini = 0.5\nsamples = 113\nvalue = [95, 84]\nclass = FALSE POSITIVE", fillcolor="#e581391e"] ;
26 -> 27 ;
28 [label="koi_bin_oedp_sig <= 0.01\ngini = 0.35\nsamples = 64\nvalue = [24, 84]\nclass = EXOPLANET", fillcolor="#399de5b6"] ;
27 -> 28 ;
29 [label="gini = 0.31\nsamples = 10\nvalue = [17, 4]\nclass = FALSE POSITIVE", fillcolor="#e58139c3"] ;
28 -> 29 ;
30 [label="koi_dicco_mra <= -0.1\ngini = 0.15\nsamples = 54\nvalue = [7, 80]\nclass = EXOPLANET", fillcolor="#399de5e9"] ;
28 -> 30 ;
31 [label="gini = 0.43\nsamples = 16\nvalue = [7, 15]\nclass = EXOPLANET", fillcolor="#399de588"] ;
30 -> 31 ;
32 [label="gini = 0.0\nsamples = 38\nvalue = [0, 65]\nclass = EXOPLANET", fillcolor="#399de5ff"] ;
30 -> 32 ;
33 [label="gini = 0.0\nsamples = 49\nvalue = [71, 0]\nclass = FALSE POSITIVE", fillcolor="#e58139ff"] ;
27 -> 33 ;
34 [label="gini = 0.0\nsamples = 79\nvalue = [127, 0]\nclass = FALSE POSITIVE", fillcolor="#e58139ff"] ;
26 -> 34 ;
35 [label="koi_max_mult_ev <= 10.34\ngini = 0.49\nsamples = 1218\nvalue = [1114, 799]\nclass = FALSE POSITIVE", fillcolor="#e5813948"] ;
1 -> 35 ;
36 [label="koi_max_mult_ev <= 9.92\ngini = 0.03\nsamples = 503\nvalue = [763, 11]\nclass = FALSE POSITIVE", fillcolor="#e58139fb"] ;
35 -> 36 ;
37 [label="koi_max_mult_ev <= 9.46\ngini = 0.01\nsamples = 476\nvalue = [725, 2]\nclass = FALSE POSITIVE", fillcolor="#e58139fe"] ;
36 -> 37 ;
38 [label="koi_fwm_srao <= 1.95\ngini = 0.0\nsamples = 459\nvalue = [704, 1]\nclass = FALSE POSITIVE", fillcolor="#e58139ff"] ;
37 -> 38 ;
39 [label="gini = 0.0\nsamples = 412\nvalue = [643, 0]\nclass = FALSE POSITIVE", fillcolor="#e58139ff"] ;
38 -> 39 ;
40 [label="koi_dor <= 289.53\ngini = 0.03\nsamples = 47\nvalue = [61, 1]\nclass = FALSE POSITIVE", fillcolor="#e58139fb"] ;
38 -> 40 ;
41 [label="gini = 0.0\nsamples = 37\nvalue = [52, 0]\nclass = FALSE POSITIVE", fillcolor="#e58139ff"] ;
40 -> 41 ;
42 [label="gini = 0.18\nsamples = 10\nvalue = [9, 1]\nclass = FALSE POSITIVE", fillcolor="#e58139e3"] ;
40 -> 42 ;
43 [label="gini = 0.09\nsamples = 17\nvalue = [21, 1]\nclass = FALSE POSITIVE", fillcolor="#e58139f3"] ;
37 -> 43 ;
44 [label="koi_dor <= 9.6\ngini = 0.31\nsamples = 27\nvalue = [38, 9]\nclass = FALSE POSITIVE", fillcolor="#e58139c3"] ;
36 -> 44 ;
45 [label="gini = 0.0\nsamples = 16\nvalue = [27, 0]\nclass = FALSE POSITIVE", fillcolor="#e58139ff"] ;
44 -> 45 ;
46 [label="gini = 0.5\nsamples = 11\nvalue = [11, 9]\nclass = FALSE POSITIVE", fillcolor="#e581392e"] ;
44 -> 46 ;
47 [label="koi_fpflag_ss <= 0.5\ngini = 0.43\nsamples = 715\nvalue = [351, 788]\nclass = EXOPLANET", fillcolor="#399de58d"] ;
35 -> 47 ;
48 [label="koi_dor <= 3.41\ngini = 0.27\nsamples = 588\nvalue = [150, 785]\nclass = EXOPLANET", fillcolor="#399de5ce"] ;
47 -> 48 ;
49 [label="koi_max_mult_ev <= 23.46\ngini = 0.11\nsamples = 69\nvalue = [101, 6]\nclass = FALSE POSITIVE", fillcolor="#e58139f0"] ;
48 -> 49 ;
50 [label="koi_time0bk <= 131.7\ngini = 0.02\nsamples = 59\nvalue = [92, 1]\nclass = FALSE POSITIVE", fillcolor="#e58139fc"] ;
49 -> 50 ;
51 [label="gini = 0.15\nsamples = 10\nvalue = [11, 1]\nclass = FALSE POSITIVE", fillcolor="#e58139e8"] ;
50 -> 51 ;
52 [label="gini = 0.0\nsamples = 49\nvalue = [81, 0]\nclass = FALSE POSITIVE", fillcolor="#e58139ff"] ;
50 -> 52 ;
53 [label="gini = 0.46\nsamples = 10\nvalue = [9, 5]\nclass = FALSE POSITIVE", fillcolor="#e5813971"] ;
49 -> 53 ;
54 [label="koi_fpflag_ec <= 0.5\ngini = 0.11\nsamples = 519\nvalue = [49, 779]\nclass = EXOPLANET", fillcolor="#399de5ef"] ;
48 -> 54 ;
55 [label="koi_fpflag_nt <= 0.5\ngini = 0.05\nsamples = 500\nvalue = [22, 779]\nclass = EXOPLANET", fillcolor="#399de5f8"] ;
54 -> 55 ;
56 [label="koi_dicco_mdec <= -0.99\ngini = 0.01\nsamples = 486\nvalue = [5, 779]\nclass = EXOPLANET", fillcolor="#399de5fd"] ;
55 -> 56 ;
57 [label="gini = 0.35\nsamples = 10\nvalue = [4, 14]\nclass = EXOPLANET", fillcolor="#399de5b6"] ;
56 -> 57 ;
58 [label="gini = 0.0\nsamples = 476\nvalue = [1, 765]\nclass = EXOPLANET", fillcolor="#399de5ff"] ;
56 -> 58 ;
59 [label="gini = 0.0\nsamples = 14\nvalue = [17, 0]\nclass = FALSE POSITIVE", fillcolor="#e58139ff"] ;
55 -> 59 ;
60 [label="gini = 0.0\nsamples = 19\nvalue = [27, 0]\nclass = FALSE POSITIVE", fillcolor="#e58139ff"] ;
54 -> 60 ;
61 [label="koi_impact <= 0.07\ngini = 0.03\nsamples = 127\nvalue = [201, 3]\nclass = FALSE POSITIVE", fillcolor="#e58139fb"] ;
47 -> 61 ;
62 [label="gini = 0.27\nsamples = 14\nvalue = [16, 3]\nclass = FALSE POSITIVE", fillcolor="#e58139cf"] ;
61 -> 62 ;
63 [label="gini = 0.0\nsamples = 113\nvalue = [185, 0]\nclass = FALSE POSITIVE", fillcolor="#e58139ff"] ;
61 -> 63 ;
64 [label="koi_fpflag_nt <= 0.5\ngini = 0.33\nsamples = 1030\nvalue = [330, 1259]\nclass = EXOPLANET", fillcolor="#399de5bc"] ;
0 -> 64 [labeldistance=2.5, labelangle=-45, headlabel="False"] ;
65 [label="koi_fpflag_co <= 0.5\ngini = 0.22\nsamples = 936\nvalue = [182, 1259]\nclass = EXOPLANET", fillcolor="#399de5da"] ;
64 -> 65 ;
66 [label="koi_fpflag_ss <= 0.5\ngini = 0.12\nsamples = 878\nvalue = [85, 1259]\nclass = EXOPLANET", fillcolor="#399de5ee"] ;
65 -> 66 ;
67 [label="ENC_LS+MCMC <= 0.5\ngini = 0.05\nsamples = 841\nvalue = [35, 1258]\nclass = EXOPLANET", fillcolor="#399de5f8"] ;
66 -> 67 ;
68 [label="koi_slogg <= 4.51\ngini = 0.28\nsamples = 24\nvalue = [29, 6]\nclass = FALSE POSITIVE", fillcolor="#e58139ca"] ;
67 -> 68 ;
69 [label="gini = 0.0\nsamples = 14\nvalue = [20, 0]\nclass = FALSE POSITIVE", fillcolor="#e58139ff"] ;
68 -> 69 ;
70 [label="gini = 0.48\nsamples = 10\nvalue = [9, 6]\nclass = FALSE POSITIVE", fillcolor="#e5813955"] ;
68 -> 70 ;
71 [label="koi_dikco_msky <= 2.26\ngini = 0.01\nsamples = 817\nvalue = [6, 1252]\nclass = EXOPLANET", fillcolor="#399de5fe"] ;
67 -> 71 ;
72 [label="koi_dicco_msky <= 0.01\ngini = 0.0\nsamples = 806\nvalue = [1, 1242]\nclass = EXOPLANET", fillcolor="#399de5ff"] ;
71 -> 72 ;
73 [label="gini = 0.14\nsamples = 10\nvalue = [1, 12]\nclass = EXOPLANET", fillcolor="#399de5ea"] ;
72 -> 73 ;
74 [label="gini = 0.0\nsamples = 796\nvalue = [0, 1230]\nclass = EXOPLANET", fillcolor="#399de5ff"] ;
72 -> 74 ;
75 [label="gini = 0.44\nsamples = 11\nvalue = [5, 10]\nclass = EXOPLANET", fillcolor="#399de57f"] ;
71 -> 75 ;
76 [label="dec <= 45.51\ngini = 0.04\nsamples = 37\nvalue = [50, 1]\nclass = FALSE POSITIVE", fillcolor="#e58139fa"] ;
66 -> 76 ;
77 [label="gini = 0.0\nsamples = 27\nvalue = [40, 0]\nclass = FALSE POSITIVE", fillcolor="#e58139ff"] ;
76 -> 77 ;
78 [label="gini = 0.17\nsamples = 10\nvalue = [10, 1]\nclass = FALSE POSITIVE", fillcolor="#e58139e6"] ;
76 -> 78 ;
79 [label="gini = 0.0\nsamples = 58\nvalue = [97, 0]\nclass = FALSE POSITIVE", fillcolor="#e58139ff"] ;
65 -> 79 ;
80 [label="gini = 0.0\nsamples = 94\nvalue = [148, 0]\nclass = FALSE POSITIVE", fillcolor="#e58139ff"] ;
64 -> 80 ;
}