digraph Tree {
node [shape=box, style="filled, rounded", color="black", fontname=helvetica] ;
edge [fontname=helvetica] ;
0 [label="koi_dicco_msky <= 1.11\ngini = 0.43\nsamples = 4545\nvalue = [4858, 2280]\nclass = FALSE POSITIVE", fillcolor="#e5813987"] ;
1 [label="koi_prad <= 13.5\ngini = 0.5\nsamples = 2651\nvalue = [2016, 2155]\nclass = EXOPLANET", fillcolor="#399de510"] ;
0 -> 1 [labeldistance=2.5, labelangle=45, headlabel="True"] ;
2 [label="koi_fpflag_nt <= 0.5\ngini = 0.35\nsamples = 1755\nvalue = [610, 2128]\nclass = EXOPLANET", fillcolor="#399de5b6"] ;
1 -> 2 ;
3 [label="koi_fpflag_ss <= 0.5\ngini = 0.2\nsamples = 1532\nvalue = [268, 2128]\nclass = EXOPLANET", fillcolor="#399de5df"] ;
2 -> 3 ;
4 [label="koi_fpflag_ec <= 0.5\ngini = 0.11\nsamples = 1442\nvalue = [136, 2123]\nclass = EXOPLANET", fillcolor="#399de5ef"] ;
3 -> 4 ;
5 [label="koi_fpflag_co <= 0.5\ngini = 0.04\nsamples = 1388\nvalue = [46, 2123]\nclass = EXOPLANET", fillcolor="#399de5f9"] ;
4 -> 5 ;
6 [label="ENC_LS+MCMC <= 0.5\ngini = 0.02\nsamples = 1373\nvalue = [23, 2123]\nclass = EXOPLANET", fillcolor="#399de5fc"] ;
5 -> 6 ;
7 [label="koi_teq <= 533.0\ngini = 0.3\nsamples = 19\nvalue = [22, 5]\nclass = FALSE POSITIVE", fillcolor="#e58139c5"] ;
6 -> 7 ;
8 [label="gini = 0.28\nsamples = 5\nvalue = [1, 5]\nclass = EXOPLANET", fillcolor="#399de5cc"] ;
7 -> 8 ;
9 [label="gini = 0.0\nsamples = 14\nvalue = [21, 0]\nclass = FALSE POSITIVE", fillcolor="#e58139ff"] ;
7 -> 9 ;
10 [label="koi_fwm_prao <= 0.0\ngini = 0.0\nsamples = 1354\nvalue = [1, 2118]\nclass = EXOPLANET", fillcolor="#399de5ff"] ;
6 -> 10 ;
11 [label="gini = 0.0\nsamples = 1337\nvalue = [0, 2093]\nclass = EXOPLANET", fillcolor="#399de5ff"] ;
10 -> 11 ;
12 [label="gini = 0.07\nsamples = 17\nvalue = [1, 25]\nclass = EXOPLANET", fillcolor="#399de5f5"] ;
10 -> 12 ;
13 [label="gini = 0.0\nsamples = 15\nvalue = [23, 0]\nclass = FALSE POSITIVE", fillcolor="#e58139ff"] ;
5 -> 13 ;
14 [label="gini = 0.0\nsamples = 54\nvalue = [90, 0]\nclass = FALSE POSITIVE", fillcolor="#e58139ff"] ;
4 -> 14 ;
15 [label="koi_model_snr <= 1005.6\ngini = 0.07\nsamples = 90\nvalue = [132, 5]\nclass = FALSE POSITIVE", fillcolor="#e58139f5"] ;
3 -> 15 ;
16 [label="gini = 0.0\nsamples = 85\nvalue = [131, 0]\nclass = FALSE POSITIVE", fillcolor="#e58139ff"] ;
15 -> 16 ;
17 [label="gini = 0.28\nsamples = 5\nvalue = [1, 5]\nclass = EXOPLANET", fillcolor="#399de5cc"] ;
15 -> 17 ;
18 [label="gini = 0.0\nsamples = 223\nvalue = [342, 0]\nclass = FALSE POSITIVE", fillcolor="#e58139ff"] ;
2 -> 18 ;
19 [label="koi_prad <= 18.06\ngini = 0.04\nsamples = 896\nvalue = [1406, 27]\nclass = FALSE POSITIVE", fillcolor="#e58139fa"] ;
1 -> 19 ;
20 [label="koi_dicco_msky <= 0.02\ngini = 0.26\nsamples = 69\nvalue = [92, 17]\nclass = FALSE POSITIVE", fillcolor="#e58139d0"] ;
19 -> 20 ;
21 [label="koi_teq <= 841.5\ngini = 0.47\nsamples = 13\nvalue = [7, 12]\nclass = EXOPLANET", fillcolor="#399de56a"] ;
20 -> 21 ;
22 [label="gini = 0.22\nsamples = 5\nvalue = [7, 1]\nclass = FALSE POSITIVE", fillcolor="#e58139db"] ;
21 -> 22 ;
23 [label="gini = 0.0\nsamples = 8\nvalue = [0, 11]\nclass = EXOPLANET", fillcolor="#399de5ff"] ;
21 -> 23 ;
24 [label="koi_smet <= 0.09\ngini = 0.1\nsamples = 56\nvalue = [85, 5]\nclass = FALSE POSITIVE", fillcolor="#e58139f0"] ;
20 -> 24 ;
25 [label="gini = 0.0\nsamples = 50\nvalue = [78, 0]\nclass = FALSE POSITIVE", fillcolor="#e58139ff"] ;
24 -> 25 ;
26 [label="gini = 0.49\nsamples = 6\nvalue = [7, 5]\nclass = FALSE POSITIVE", fillcolor="#e5813949"] ;
24 -> 26 ;
27 [label="koi_tce_plnt_num <= 2.5\ngini = 0.01\nsamples = 827\nvalue = [1314, 10]\nclass = FALSE POSITIVE", fillcolor="#e58139fd"] ;
19 -> 27 ;
28 [label="koi_dikco_msky <= 0.02\ngini = 0.01\nsamples = 818\nvalue = [1303, 5]\nclass = FALSE POSITIVE", fillcolor="#e58139fe"] ;
27 -> 28 ;
29 [label="koi_fwm_sdeco <= 0.04\ngini = 0.32\nsamples = 15\nvalue = [16, 4]\nclass = FALSE POSITIVE", fillcolor="#e58139bf"] ;
28 -> 29 ;
30 [label="gini = 0.0\nsamples = 10\nvalue = [13, 0]\nclass = FALSE POSITIVE", fillcolor="#e58139ff"] ;
29 -> 30 ;
31 [label="gini = 0.49\nsamples = 5\nvalue = [3, 4]\nclass = EXOPLANET", fillcolor="#399de540"] ;
29 -> 31 ;
32 [label="koi_fwm_sdec <= 51.35\ngini = 0.0\nsamples = 803\nvalue = [1287, 1]\nclass = FALSE POSITIVE", fillcolor="#e58139ff"] ;
28 -> 32 ;
33 [label="gini = 0.0\nsamples = 798\nvalue = [1279, 0]\nclass = FALSE POSITIVE", fillcolor="#e58139ff"] ;
32 -> 33 ;
34 [label="gini = 0.2\nsamples = 5\nvalue = [8, 1]\nclass = FALSE POSITIVE", fillcolor="#e58139df"] ;
32 -> 34 ;
35 [label="gini = 0.43\nsamples = 9\nvalue = [11, 5]\nclass = FALSE POSITIVE", fillcolor="#e581398b"] ;
27 -> 35 ;
36 [label="koi_dikco_msky <= 1.7\ngini = 0.08\nsamples = 1894\nvalue = [2842, 125]\nclass = FALSE POSITIVE", fillcolor="#e58139f4"] ;
0 -> 36 [labeldistance=2.5, labelangle=-45, headlabel="False"] ;
37 [label="koi_tce_plnt_num <= 1.86\ngini = 0.26\nsamples = 406\nvalue = [542, 99]\nclass = FALSE POSITIVE", fillcolor="#e58139d0"] ;
36 -> 37 ;
38 [label="koi_prad <= 4.02\ngini = 0.18\nsamples = 354\nvalue = [501, 56]\nclass = FALSE POSITIVE", fillcolor="#e58139e2"] ;
37 -> 38 ;
39 [label="koi_fpflag_nt <= 0.5\ngini = 0.31\nsamples = 175\nvalue = [228, 55]\nclass = FALSE POSITIVE", fillcolor="#e58139c1"] ;
38 -> 39 ;
40 [label="koi_dor <= 7.78\ngini = 0.47\nsamples = 87\nvalue = [88, 55]\nclass = FALSE POSITIVE", fillcolor="#e5813960"] ;
39 -> 40 ;
41 [label="koi_dikco_msky <= 0.68\ngini = 0.11\nsamples = 46\nvalue = [66, 4]\nclass = FALSE POSITIVE", fillcolor="#e58139f0"] ;
40 -> 41 ;
42 [label="gini = 0.49\nsamples = 5\nvalue = [3, 4]\nclass = EXOPLANET", fillcolor="#399de540"] ;
41 -> 42 ;
43 [label="gini = 0.0\nsamples = 41\nvalue = [63, 0]\nclass = FALSE POSITIVE", fillcolor="#e58139ff"] ;
41 -> 43 ;
44 [label="ENC_LS+MCMC <= 0.5\ngini = 0.42\nsamples = 41\nvalue = [22, 51]\nclass = EXOPLANET", fillcolor="#399de591"] ;
40 -> 44 ;
45 [label="gini = 0.0\nsamples = 6\nvalue = [10, 0]\nclass = FALSE POSITIVE", fillcolor="#e58139ff"] ;
44 -> 45 ;
46 [label="koi_fpflag_co <= 0.5\ngini = 0.31\nsamples = 35\nvalue = [12, 51]\nclass = EXOPLANET", fillcolor="#399de5c3"] ;
44 -> 46 ;
47 [label="gini = 0.1\nsamples = 29\nvalue = [3, 51]\nclass = EXOPLANET", fillcolor="#399de5f0"] ;
46 -> 47 ;
48 [label="gini = 0.0\nsamples = 6\nvalue = [9, 0]\nclass = FALSE POSITIVE", fillcolor="#e58139ff"] ;
46 -> 48 ;
49 [label="gini = 0.0\nsamples = 88\nvalue = [140, 0]\nclass = FALSE POSITIVE", fillcolor="#e58139ff"] ;
39 -> 49 ;
50 [label="koi_ror <= 0.03\ngini = 0.01\nsamples = 179\nvalue = [273, 1]\nclass = FALSE POSITIVE", fillcolor="#e58139fe"] ;
38 -> 50 ;
51 [label="koi_fwm_sra <= 19.84\ngini = 0.14\nsamples = 10\nvalue = [12, 1]\nclass = FALSE POSITIVE", fillcolor="#e58139ea"] ;
50 -> 51 ;
52 [label="gini = 0.32\nsamples = 5\nvalue = [4, 1]\nclass = FALSE POSITIVE", fillcolor="#e58139bf"] ;
51 -> 52 ;
53 [label="gini = 0.0\nsamples = 5\nvalue = [8, 0]\nclass = FALSE POSITIVE", fillcolor="#e58139ff"] ;
51 -> 53 ;
54 [label="gini = 0.0\nsamples = 169\nvalue = [261, 0]\nclass = FALSE POSITIVE", fillcolor="#e58139ff"] ;
50 -> 54 ;
55 [label="koi_fpflag_nt <= 0.5\ngini = 0.5\nsamples = 52\nvalue = [41, 43]\nclass = EXOPLANET", fillcolor="#399de50c"] ;
37 -> 55 ;
56 [label="koi_model_snr <= 12.5\ngini = 0.26\nsamples = 30\nvalue = [8, 43]\nclass = EXOPLANET", fillcolor="#399de5d0"] ;
55 -> 56 ;
57 [label="gini = 0.42\nsamples = 5\nvalue = [7, 3]\nclass = FALSE POSITIVE", fillcolor="#e5813992"] ;
56 -> 57 ;
58 [label="koi_srho <= 0.24\ngini = 0.05\nsamples = 25\nvalue = [1, 40]\nclass = EXOPLANET", fillcolor="#399de5f9"] ;
56 -> 58 ;
59 [label="gini = 0.32\nsamples = 5\nvalue = [1, 4]\nclass = EXOPLANET", fillcolor="#399de5bf"] ;
58 -> 59 ;
60 [label="gini = 0.0\nsamples = 20\nvalue = [0, 36]\nclass = EXOPLANET", fillcolor="#399de5ff"] ;
58 -> 60 ;
61 [label="gini = 0.0\nsamples = 22\nvalue = [33, 0]\nclass = FALSE POSITIVE", fillcolor="#e58139ff"] ;
55 -> 61 ;
62 [label="koi_jmag <= 7.79\ngini = 0.02\nsamples = 1488\nvalue = [2300, 26]\nclass = FALSE POSITIVE", fillcolor="#e58139fc"] ;
36 -> 62 ;
63 [label="koi_zmag <= 8.38\ngini = 0.5\nsamples = 13\nvalue = [9, 8]\nclass = FALSE POSITIVE", fillcolor="#e581391c"] ;
62 -> 63 ;
64 [label="gini = 0.0\nsamples = 7\nvalue = [8, 0]\nclass = FALSE POSITIVE", fillcolor="#e58139ff"] ;
63 -> 64 ;
65 [label="gini = 0.2\nsamples = 6\nvalue = [1, 8]\nclass = EXOPLANET", fillcolor="#399de5df"] ;
63 -> 65 ;
66 [label="koi_model_snr <= 1854.71\ngini = 0.02\nsamples = 1475\nvalue = [2291, 18]\nclass = FALSE POSITIVE", fillcolor="#e58139fd"] ;
62 -> 66 ;
67 [label="koi_fpflag_co <= 0.5\ngini = 0.01\nsamples = 1470\nvalue = [2284, 16]\nclass = FALSE POSITIVE", fillcolor="#e58139fd"] ;
66 -> 67 ;
68 [label="koi_fpflag_nt <= 0.5\ngini = 0.05\nsamples = 429\nvalue = [644, 16]\nclass = FALSE POSITIVE", fillcolor="#e58139f9"] ;
67 -> 68 ;
69 [label="koi_tce_plnt_num <= 1.89\ngini = 0.13\nsamples = 142\nvalue = [204, 16]\nclass = FALSE POSITIVE", fillcolor="#e58139eb"] ;
68 -> 69 ;
70 [label="koi_max_sngle_ev <= 4.68\ngini = 0.09\nsamples = 130\nvalue = [193, 10]\nclass = FALSE POSITIVE", fillcolor="#e58139f2"] ;
69 -> 70 ;
71 [label="gini = 0.25\nsamples = 42\nvalue = [52, 9]\nclass = FALSE POSITIVE", fillcolor="#e58139d3"] ;
70 -> 71 ;
72 [label="gini = 0.01\nsamples = 88\nvalue = [141, 1]\nclass = FALSE POSITIVE", fillcolor="#e58139fd"] ;
70 -> 72 ;
73 [label="koi_fwm_sdeco <= 0.2\ngini = 0.46\nsamples = 12\nvalue = [11, 6]\nclass = FALSE POSITIVE", fillcolor="#e5813974"] ;
69 -> 73 ;
74 [label="gini = 0.0\nsamples = 6\nvalue = [8, 0]\nclass = FALSE POSITIVE", fillcolor="#e58139ff"] ;
73 -> 74 ;
75 [label="gini = 0.44\nsamples = 6\nvalue = [3, 6]\nclass = EXOPLANET", fillcolor="#399de57f"] ;
73 -> 75 ;
76 [label="gini = 0.0\nsamples = 287\nvalue = [440, 0]\nclass = FALSE POSITIVE", fillcolor="#e58139ff"] ;
68 -> 76 ;
77 [label="gini = 0.0\nsamples = 1041\nvalue = [1640, 0]\nclass = FALSE POSITIVE", fillcolor="#e58139ff"] ;
67 -> 77 ;
78 [label="gini = 0.35\nsamples = 5\nvalue = [7, 2]\nclass = FALSE POSITIVE", fillcolor="#e58139b6"] ;
66 -> 78 ;
}